digraph Tree {
node [shape=box] ;
0 [label="X[2633] <= 432.42\nmse = 0.085\nsamples = 50\nvalue = 0.559"] ;
1 [label="mse = 0.0\nsamples = 1\nvalue = 0.332"] ;
0 -> 1 [labeldistance=2.5, labelangle=45, headlabel="True"] ;
2 [label="X[1185] <= 7.609\nmse = 0.086\nsamples = 49\nvalue = 0.564"] ;
0 -> 2 [labeldistance=2.5, labelangle=-45, headlabel="False"] ;
3 [label="X[760] <= -0.006\nmse = 0.006\nsamples = 2\nvalue = 0.375"] ;
2 -> 3 ;
4 [label="mse = 0.0\nsamples = 1\nvalue = 0.45"] ;
3 -> 4 ;
5 [label="mse = 0.0\nsamples = 1\nvalue = 0.3"] ;
3 -> 5 ;
6 [label="X[585] <= 0.308\nmse = 0.088\nsamples = 47\nvalue = 0.572"] ;
2 -> 6 ;
7 [label="mse = 0.0\nsamples = 1\nvalue = 0.457"] ;
6 -> 7 ;
8 [label="X[1187] <= 52.502\nmse = 0.089\nsamples = 46\nvalue = 0.574"] ;
6 -> 8 ;
9 [label="X[2305] <= 0.003\nmse = 0.09\nsamples = 43\nvalue = 0.575"] ;
8 -> 9 ;
10 [label="X[2123] <= 36.748\nmse = 0.093\nsamples = 35\nvalue = 0.538"] ;
9 -> 10 ;
11 [label="mse = 0.0\nsamples = 1\nvalue = 0.867"] ;
10 -> 11 ;
12 [label="mse = 0.093\nsamples = 34\nvalue = 0.529"] ;
10 -> 12 ;
13 [label="X[2335] <= 16.583\nmse = 0.046\nsamples = 8\nvalue = 0.736"] ;
9 -> 13 ;
14 [label="mse = 0.051\nsamples = 4\nvalue = 0.683"] ;
13 -> 14 ;
15 [label="mse = 0.036\nsamples = 4\nvalue = 0.789"] ;
13 -> 15 ;
16 [label="X[1070] <= 0.748\nmse = 0.075\nsamples = 3\nvalue = 0.562"] ;
8 -> 16 ;
17 [label="mse = 0.0\nsamples = 1\nvalue = 0.193"] ;
16 -> 17 ;
18 [label="X[2405] <= 0.061\nmse = 0.011\nsamples = 2\nvalue = 0.746"] ;
16 -> 18 ;
19 [label="mse = 0.0\nsamples = 1\nvalue = 0.85"] ;
18 -> 19 ;
20 [label="mse = -0.0\nsamples = 1\nvalue = 0.641"] ;
18 -> 20 ;
}